12 100
o -0.0005435876 0.00024574518 0.0051070247 0.009044867 -0.009313619 -0.007124833 0.0064760055 0.009009227 -0.0050592255 -0.003764842 0.007394356 -0.0015518235 -0.004526179 0.00657618 -0.0048545417 -0.001832094 0.0028999178 0.0010164502 -0.008337342 -0.009499204 0.007318569 0.0050813253 0.006776374 0.00073662144 0.006392905 -0.0034261444 -0.00093459396 0.0058015985 -0.0075650695 -0.0039385413 -0.0075166607 -0.00095316407 0.009553743 -0.0073471526 -0.0023653447 -0.0019429626 0.008103345 -0.0059362366 5.128109e-05 -0.004770742 -0.009641639 0.0050277077 -0.00879505 -0.004390714 -2.3890481e-05 -0.00028653492 -0.007684636 0.0096427305 0.0049908925 0.009262307 -0.00818107 0.0045027607 -0.0041639796 0.0008081885 0.008503713 -0.004488897 0.0045277067 -0.0068181884 -0.0035727269 0.009420486 -0.0015740715 0.00031373167 -0.0041284496 -0.0077043837 -0.0015338298 0.0025030307 -0.0008769922 0.0055667297 -0.0027715806 0.0022797075 0.00548095 0.008386586 -0.0014429636 -0.009232071 0.0043728105 0.000589654 0.0074876905 -0.00081302924 -0.0026532002 -0.008785514 -0.00085939193 0.0028113762 0.0054000556 0.0070761763 -0.0057152184 0.0018471687 0.0060962173 -0.0048319534 -0.003092517 0.0068221544 0.0016231381 0.00020693848 0.003506319 0.00021014639 0.009676619 0.00509233 -0.008933647 -0.0070619876 0.0009291742 0.006393984
l -0.008620829 0.0036666559 0.0051890844 0.005741245 0.0074672773 -0.0061667576 0.0011059106 0.006047799 -0.0028419618 -0.006173205 -0.00041113904 -0.008369772 -0.005599131 0.0071036373 0.0033535967 0.007224154 0.00680012 0.007531418 -0.003790723 -0.00056272943 0.0023466875 -0.004519374 0.008389341 -0.009858792 0.0067651244 0.0029135435 -0.0049315584 0.004397643 -0.0017402396 0.006712191 0.00996631 -0.004364412 -0.00060049753 -0.0056963414 0.0038497169 0.002787442 0.006891507 0.0061022537 0.009539291 0.009272676 0.007898142 -0.0069898255 -0.009156652 -0.00035513553 -0.0030994427 0.007894539 0.0059387255 -0.0015451674 0.0015101844 0.0017896186 0.007818005 -0.009511284 -0.0002057207 0.0034688064 -0.00094086205 0.008381157 0.009011534 0.006535273 -0.000712869 0.0077089663 -0.0085332645 0.0032064011 -0.004635738 -0.005089567 0.0035886893 0.005371769 0.007770396 -0.005765369 0.007431446 0.0066254865 -0.0037094106 -0.008744367 0.0054389657 0.0065108025 -0.00078830705 -0.0067082457 -0.0070858044 -0.0024965524 0.0051425663 -0.0036649602 -0.009369256 0.003824773 0.004884189 -0.006429427 0.0012088565 -0.0020763564 2.335904e-05 -0.009883866 0.0026928196 -0.0047496646 0.0010877163 -0.001574632 0.0021971995 -0.007882434 -0.0027148917 0.002664662 0.005347377 -0.0023919868 -0.009508555 0.0045041624
r 8.874249e-05 0.0030827406 -0.0068200934 -0.0013795797 0.0076733823 0.0073541133 -0.003673924 0.0026479277 -0.0083326 0.006208433 -0.0046453024 -0.0031706484 0.009319702 0.00086916867 0.0074994178 -0.0060848873 0.0051640095 0.009931714 -0.008470539 -0.0051446385 -0.007078043 -0.0048674056 -0.003777098 -0.008544807 0.00796193 -0.004851054 0.008434287 0.00526419 -0.0065581044 0.003966499 0.005481125 -0.0074409074 -0.0074165273 -0.0024824287 -0.008636772 -0.0015775819 -0.00040065718 0.003307779 0.001446906 -0.00088416797 -0.005594325 0.0017284224 -0.00090352463 0.0068006827 0.0039785192 0.0045331814 0.0014353099 -0.0026985684 -0.0043717423 -0.001033948 0.0014400481 -0.0026542332 -0.007077333 -0.0078107533 -0.00913812 -0.005940248 -0.0018443462 -0.004332691 -0.006471596 -0.0037256095 0.0042983675 -0.003744146 0.00839419 0.0015315227 -0.007249942 0.009447565 0.0076398966 0.005502066 -0.0068619587 0.00582466 0.004014529 0.0051949513 0.004266821 0.0019457729 -0.0031756316 0.008367448 0.00961858 0.0037974243 -0.0028403972 7.919667e-06 0.0012231255 -0.008473059 -0.008230733 -0.00023618457 0.0012392292 -0.005755709 -0.004733618 -0.0073504956 0.008338865 0.00012334237 -0.004510591 0.005713672 0.009186629 -0.004106323 0.007981177 0.005385577 0.005885382 0.0005087562 0.008225595 -0.0070317807
e -0.008242678 0.009299355 -0.00019766092 -0.0019672764 0.0046036304 -0.004095316 0.0027431143 0.0069399667 0.006065426 -0.0075107943 0.00938235 0.0046718083 0.0039661205 -0.0062435055 0.00845998 -0.002150165 0.008825188 -0.0053620026 -0.008129419 0.006824559 0.0016711927 -0.002198509 0.009513601 0.009493855 -0.009774047 0.0025052286 0.0061566923 0.0038724565 0.0020227872 0.0004305017 0.00067363144 -0.0038206363 -0.0071402504 -0.0020888723 0.0039238976 0.008818683 0.00925915 -0.0059759365 -0.009402671 0.009764377 0.0034297847 0.005166117 0.006282345 -0.0028042626 0.0073227035 0.0028302716 0.0028710044 -0.00238037 -0.0031282497 -0.0023701417 0.0042764368 7.605791e-05 -0.009584279 -0.009665544 -0.006148194 -0.0001285696 0.001997416 0.0094319675 0.005584351 -0.0042906962 0.00027831673 0.0049643586 0.0076983096 -0.0011442233 0.0043234206 -0.0058143795 -0.00080419064 0.0081000505 -0.002360065 -0.009663455 0.0057792603 -0.0039298222 -0.0012228728 0.009980517 -0.0022563506 -0.0047570644 -0.0053293873 0.00698089 -0.005708872 0.002113663 -0.00525566 0.006120714 0.0043573068 0.002606355 -0.001491083 -0.0027460635 0.008992936 0.0052157748 -0.0021625196 -0.00947031 -0.007426052 -0.0010637414 -0.00079494715 -0.0025629092 0.0096827205 -0.00045852066 0.005873761 -0.0074475873 -0.0025060738 -0.0055498634
k -0.007139015 0.0012410306 -0.0071767163 -0.002244618 0.0037193035 0.005833124 0.0011981833 0.0021027315 -0.0041103913 0.0072253332 -0.0063070417 0.004647216 -0.008219973 0.002036468 -0.004977052 -0.004247688 -0.0031089843 0.0056552086 0.005798401 -0.004974649 0.0007733309 -0.008495778 0.0078098057 0.009257291 -0.0027423275 0.0008002233 0.0007466519 0.005477885 -0.008606079 0.00058445573 0.0068694223 0.0022315944 0.0011246764 -0.009322155 0.008482367 -0.0062641273 -0.0029923737 0.003493787 -0.0007726276 0.0014112913 0.0017819917 -0.0068288995 -0.009724812 0.009040585 0.0061980546 -0.0069129276 0.0034034825 0.00020606398 0.0047537456 -0.007119943 0.004026954 0.0043474343 0.009957369 -0.00447374 -0.0013892639 -0.0073173214 -0.009697829 -0.009080257 -0.0010227549 -0.00650329 0.004849728 -0.0061640264 0.0025191857 0.0007394409 -0.003392154 -0.0009792233 0.009979125 0.009145887 -0.0044618296 0.009083027 -0.005641763 0.005930922 -0.0030972182 0.0034317516 0.0030172265 0.006900461 -0.0023738837 0.008775037 0.007589428 -0.009547646 -0.008008209 -0.0076378966 0.0029232574 -0.0027947223 -0.0069295205 -0.008128264 0.00830918 0.0019904887 -0.009328017 -0.0047927164 0.0031367384 -0.004713206 0.005280843 -0.0042334413 0.002641796 -0.008045687 0.006209886 0.004818889 0.0007871926 0.0030134476
a -0.008729502 0.0021308723 -0.00087422633 -0.009321348 -0.009429791 -0.0014105283 0.004433179 0.0037051167 -0.0065007866 -0.006874226 -0.005000899 -0.0022875976 -0.0072513153 -0.009605486 -0.002743739 -0.008365209 -0.006039914 -0.005671547 -0.0023452765 -0.0017077547 -0.008959575 -0.00073571224 0.008154132 0.007691614 -0.0072072283 -0.003668023 0.0031198687 -0.009572574 0.0014763209 0.0065262592 0.0057481383 -0.008765618 -0.004518714 -0.0081422245 4.5360044e-05 0.009265672 0.0059746634 0.005068716 0.005062339 -0.0032437318 0.009554007 -0.00735801 -0.0072721383 -0.0022654368 -0.0007784617 -0.003216531 -0.00059262244 0.0074903714 -0.0006979878 -0.0016253904 0.0027451373 -0.008361227 0.007857129 0.008537536 -0.009586953 0.0024464163 0.00990714 -0.007667887 -0.0069689904 -0.007738574 0.008398173 -0.00068175717 0.009147121 -0.008160006 0.0037434436 0.002636318 0.0007434226 0.0023286026 -0.0074713095 -0.0093601355 0.0023554051 0.006150247 0.007987841 0.005737362 -0.0007777398 0.00830868 -0.009337805 0.00340719 0.0002666157 0.00385814 0.0073875836 -0.006727323 0.005585198 -0.009524452 -0.00080455845 -0.008691158 -0.005100189 0.009290866 -0.001858107 0.0029151111 0.009073067 0.008940609 -0.008209694 -0.0030133012 0.009889461 0.0051059937 -0.0015880419 -0.008694003 0.0029627816 -0.006677941
h 0.0081322715 -0.004457334 -0.0010683573 0.0010063648 -0.00019111396 0.0011481774 0.0061138608 -2.027154e-05 -0.0032459653 -0.0015107286 0.005897299 0.0015141022 -0.000724262 0.009333247 -0.0049212836 -0.00083840964 0.009175411 0.0067494274 0.001502856 -0.008882561 0.001148746 -0.0022882556 0.009368237 0.0012099278 0.0014900636 0.00240641 -0.0018360066 -0.004999634 0.0002324295 -0.0020141804 0.006600933 0.008940123 -0.0006747544 0.0029770148 -0.0061076544 0.0016993248 -0.0069262325 -0.008694027 -0.005900203 -0.008956475 0.007277595 -0.0057720314 0.008276352 -0.0072435453 0.003421675 0.009674999 -0.007785448 -0.009945057 -0.0043291464 -0.0026831306 -0.00027128935 -0.008831551 -0.008617558 0.0028002106 -0.008206407 -0.009069337 -0.0023404658 -0.008631808 -0.00705665 -0.008401151 -0.0003013289 -0.0045642983 0.0066271746 0.0015271604 -0.0033414757 0.006108972 -0.006013285 -0.0046561696 -0.007207509 -0.00433658 -0.00180933 0.006489643 -0.002770393 0.0049189674 0.0069044423 -0.0074637057 0.00456485 0.0061269784 -0.0029544747 0.006625022 0.0061258795 -0.006443485 -0.0067645516 0.0025389588 -0.0016238189 -0.006065128 0.009499209 -0.0051301466 -0.006554097 -0.000119885204 -0.002701428 0.0004444003 -0.0035374581 -0.0004193306 -0.00070861576 0.00082282064 0.008194817 -0.0057367072 -0.001659528 0.0055716075
t 0.008168867 -0.0044429596 0.008983979 0.008254778 -0.004433208 0.00030524336 0.004273119 -0.0039228913 -0.0055673956 -0.006513187 -0.0006743064 -0.0002991286 0.00446651 -0.0024731702 -0.00016956568 0.0024592746 0.004873715 -2.4324176e-05 -0.006346522 -0.009267342 2.210983e-05 0.006659234 0.001465535 -0.008974132 -0.007935279 0.00655009 -0.003782177 0.0062615452 -0.0066877115 0.008486876 -0.006513325 0.003283515 -0.0010622757 -0.0067941593 -0.0032936148 -0.0011615847 -0.0054699187 -0.0012091886 -0.007562707 0.0026491026 0.009071588 -0.002378756 -0.0009804836 0.0035179625 0.008669369 -0.00591944 -0.0068884045 -0.002934402 0.009148811 0.00086748344 -0.008678672 -0.0014509426 0.009478338 -0.007553635 -0.0053662104 0.009316827 -0.008974746 0.0038238708 0.00065996806 0.0066621504 0.008317816 -0.0028523984 -0.0039890837 0.008899058 0.002087748 0.0062576314 -0.009441966 0.009594525 -0.0013513371 -0.0060506314 0.0029971246 -0.0004536772 0.004711176 -0.0022827152 -0.0041397726 0.0022839424 0.008361705 -0.0049939035 0.0026699821 -0.007993199 -0.006774967 -0.0004720793 -0.008774224 0.0027885325 0.0015988209 -0.0023255448 0.0050016306 0.009747095 0.008462261 -0.001880965 0.002057581 -0.0040002563 -0.008238629 0.00627605 -0.0019443361 -0.0006631432 -0.0017688689 -0.00453916 0.0040662847 -0.0042743143
w -0.009582242 0.008946284 0.004160784 0.009230942 0.0066450885 0.0029288903 0.009803937 -0.004421886 -0.006811201 0.0042288816 0.0037245015 -0.0056677116 0.009708329 -0.0035615193 0.009553516 0.00082794135 -0.0063378657 -0.0019732243 -0.007383524 -0.0029834746 0.0010340947 0.009479943 0.009357054 -0.0065986374 0.0034775634 0.0022713593 -0.0024831549 -0.009229983 0.0010237023 -0.008161303 0.0063260244 -0.0058082067 0.005529516 0.009829724 -0.00016529471 0.0045311972 -0.0018075354 0.007365067 0.003943072 -0.0090125585 -0.002398537 0.003627307 -0.00010281723 -0.0011979986 -0.0010533415 -0.001670099 0.0006056479 0.0041664355 -0.0042559663 -0.003835067 -5.0920255e-05 0.000264649 -0.00017025562 -0.0047874055 0.0043044817 -0.002174781 0.0021061858 0.00066106307 0.0059634517 -0.0068479036 -0.0068103364 -0.0044790525 0.009444879 -0.001594047 -0.009432823 -0.0005382963 -0.004444199 0.0060046446 -0.009591184 0.0028592716 -0.00925 0.0012553332 0.006005098 0.0074010673 -0.007624116 -0.0060451427 -0.0068363613 -0.007915179 -0.009501244 -0.0021241803 -0.00083249435 -0.0072642867 0.0067844186 0.0011160132 0.005829647 0.0014661992 0.0007846163 -0.007369608 -0.0021723446 0.0043224683 -0.0050850054 0.0011376656 0.0028861256 -0.0015400804 0.0099413935 0.008355284 0.0024188245 0.0071157306 0.0058979043 -0.005587708
d -0.005162181 -0.006663125 -0.007776544 0.008316969 -0.001981819 -0.006853408 -0.0041485857 0.005149764 -0.0028821817 -0.0037487857 0.0016219467 -0.0027826335 -0.0015785284 0.0010750628 -0.002972589 0.008513841 0.0039133993 -0.0099535035 0.006245867 -0.00676515 0.00076680747 0.004407567 -0.005096647 -0.0021181973 0.008103672 -0.0042478614 -0.0076321485 0.009259966 -0.002164037 -0.0047188117 0.008574843 0.0042740414 0.0043255007 0.009279923 -0.008460596 0.0052574677 0.0020438654 0.0041919327 0.0017016407 0.0044584326 0.004481214 0.0061072106 -0.0032098666 -0.0045743166 -0.00042361146 0.0025353057 -0.0032666915 0.00606385 0.0041533774 0.007767094 0.002566428 0.008114809 -0.0013913199 0.008073055 0.0037139456 -0.0080523975 -0.0039299936 -0.0024791562 0.0048876307 -0.00087297463 -0.0028290192 0.007829783 0.009331715 -0.0016196526 -0.005166959 -0.004692962 -0.004843687 -0.009593532 0.0013613796 -0.0042215846 0.0025296556 0.0056234444 -0.004058935 -0.009596118 0.0015432714 -0.006695013 0.0025013303 -0.0037816141 0.007072874 0.00063496904 0.0035615785 -0.0027478307 -0.0017101587 0.0076544723 0.0014077382 -0.0058556753 -0.00783522 0.0012255653 0.0064587113 0.005561629 -0.008979077 0.008598584 0.0040535415 0.0074660424 0.009762364 -0.00727922 -0.00903999 0.005832887 0.009400371 0.0035017664
i 0.007089479 -0.0015675293 0.007947759 -0.009485815 -0.008030156 -0.00664105 -0.0040027313 0.00499152 -0.0038166062 -0.0083202645 0.008412805 -0.0037478926 0.008609763 -0.0048945453 0.003919195 0.004921093 0.0023943672 -0.002817673 0.0028457604 -0.008260229 -0.0027653526 -0.002590601 0.007249646 -0.0034659347 -0.0065976833 0.004338962 -0.00047424203 -0.0035944744 0.0068795998 0.0038724144 -0.0039009312 0.00077061204 0.009144405 0.0077530877 0.0063594384 0.004666819 0.0023856258 -0.0018420907 -0.0063718734 -0.00030282378 -0.0015678629 -0.00057085324 -0.006264742 0.00743473 -0.0065903924 -0.007238984 -0.0027585549 -0.0015139859 -0.007634866 0.0007005856 -0.005327838 -0.0012749889 -0.0073663252 0.0019593218 0.0032729984 -2.4770778e-05 -0.0054486636 -0.0017275902 0.0070835524 0.0037377458 -0.008880355 -0.0034139755 0.002354902 0.0021373124 -0.009466043 0.0045737005 -0.008656523 -0.0073844967 0.0034810333 -0.0034699026 0.0035661904 0.008897147 -0.0035736717 0.009318668 0.001711162 0.009849259 0.005708517 -0.009149346 -0.003328454 0.0065277424 0.0056023425 0.008704959 0.006924847 0.0080407895 -0.0098233605 0.0042979624 -0.0050299224 0.0035104898 0.006058732 0.004393885 0.0075117233 0.001498562 -0.001263415 0.005768727 -0.005635824 3.986776e-05 0.009455072 -0.0054825014 0.0038163273 -0.008113208
n 0.009771241 0.008165353 0.0012838015 0.0051108687 0.0014026065 -0.006458673 -0.0014226291 0.0064578527 -0.0046317996 -0.0039971587 0.0049282345 0.002708289 -0.0018437819 -0.0028739774 0.0060121035 -0.005719441 -0.0032297275 -0.0064855274 -0.0042491104 -0.008599411 -0.004469232 -0.008505293 0.0014085067 -0.008628565 -0.009909782 -0.008206055 -0.006773076 0.0066922097 0.003771683 0.0003577533 -0.0029602777 -0.007433096 0.0005377675 0.0004927068 0.0001847821 0.0008527781 0.000790886 -6.878933e-05 -0.008009143 -0.00587421 -0.008388421 -0.0013068521 0.0018111558 0.0074185226 -0.0019575707 -0.002325875 0.009478634 8.73389e-05 -0.0023986297 0.0086142905 0.0026784183 -0.0053417427 0.006586121 0.004505507 -0.0070557147 -0.0003281208 0.00083284226 0.005740402 -0.0017225427 -0.0028003417 0.0017528905 0.0008453839 0.0011976521 -0.002636908 -0.005993387 0.007333177 0.0075853695 0.008307678 -0.008608249 0.0026372063 -0.0035524624 0.009633337 0.002908134 0.0046333843 0.0023847597 0.006613906 -0.0057293745 0.007892454 -0.0024130035 -0.0045726993 -0.0020626523 0.0097291535 -0.0068609565 -0.0021836965 0.0069996635 -6.107731e-05 -0.0062938747 -0.006397285 0.008949227 0.006437291 0.004771462 -0.0032572339 -0.009263616 0.0037896936 0.007177717 -0.005626949 -0.0078724455 -0.0029787996 -0.0049210046 -0.0023170994
